<?xml version="1.0"?>
<opencv_storage>
<cascade>
  <stageType>BOOST</stageType>
  <featureType>HAAR</featureType>
  <height>30</height>
  <width>30</width>
  <stageParams>
    <boostType>GAB</boostType>
    <minHitRate>9.9500000476837158e-01</minHitRate>
    <maxFalseAlarm>5.0000000000000000e-01</maxFalseAlarm>
    <weightTrimRate>9.4999999999999996e-01</weightTrimRate>
    <maxDepth>1</maxDepth>
    <maxWeakCount>100</maxWeakCount></stageParams>
  <featureParams>
    <maxCatCount>0</maxCatCount>
    <featSize>1</featSize>
    <mode>BASIC</mode></featureParams>
  <stageNum>9</stageNum>
  <stages>
    <!-- stage 0 -->
    <_>
      <maxWeakCount>2</maxWeakCount>
      <stageThreshold>-8.7324991822242737e-02</stageThreshold>
      <weakClassifiers>
        <_>
          <internalNodes>
            0 -1 6 2.3535491526126862e-01</internalNodes>
          <leafValues>
            -7.3601788282394409e-01 8.6267995834350586e-01</leafValues></_>
        <_>
          <internalNodes>
            0 -1 29 -2.1758440416306257e-03</internalNodes>
          <leafValues>
            6.6628956794738770e-01 -9.5000493526458740e-01</leafValues></_></weakClassifiers></_>
    <!-- stage 1 -->
    <_>
      <maxWeakCount>1</maxWeakCount>
      <stageThreshold>6.9150942564010620e-01</stageThreshold>
      <weakClassifiers>
        <_>
          <internalNodes>
            0 -1 13 1.2222068384289742e-02</internalNodes>
          <leafValues>
            -9.7586208581924438e-01 6.9150942564010620e-01</leafValues></_></weakClassifiers></_>
    <!-- stage 2 -->
    <_>
      <maxWeakCount>2</maxWeakCount>
      <stageThreshold>-8.9490264654159546e-02</stageThreshold>
      <weakClassifiers>
        <_>
          <internalNodes>
            0 -1 4 4.2838919162750244e-01</internalNodes>
          <leafValues>
            -5.1538461446762085e-01 8.6506026983261108e-01</leafValues></_>
        <_>
          <internalNodes>
            0 -1 21 6.6112488275393844e-04</internalNodes>
          <leafValues>
            -9.5455050468444824e-01 6.2066996097564697e-01</leafValues></_></weakClassifiers></_>
    <!-- stage 3 -->
    <_>
      <maxWeakCount>5</maxWeakCount>
      <stageThreshold>-9.6100127696990967e-01</stageThreshold>
      <weakClassifiers>
        <_>
          <internalNodes>
            0 -1 2 7.8357830643653870e-03</internalNodes>
          <leafValues>
            -5.5392670631408691e-01 8.1891119480133057e-01</leafValues></_>
        <_>
          <internalNodes>
            0 -1 32 -1.8656125757843256e-03</internalNodes>
          <leafValues>
            6.5076363086700439e-01 -4.7071394324302673e-01</leafValues></_>
        <_>
          <internalNodes>
            0 -1 24 -4.6991641283966601e-04</internalNodes>
          <leafValues>
            3.6122709512710571e-01 -8.9860457181930542e-01</leafValues></_>
        <_>
          <internalNodes>
            0 -1 8 -1.0216397792100906e-01</internalNodes>
          <leafValues>
            5.6251662969589233e-01 -5.6346654891967773e-01</leafValues></_>
        <_>
          <internalNodes>
            0 -1 26 1.3434910215437412e-04</internalNodes>
          <leafValues>
            2.6587882637977600e-01 -9.8604047298431396e-01</leafValues></_></weakClassifiers></_>
    <!-- stage 4 -->
    <_>
      <maxWeakCount>3</maxWeakCount>
      <stageThreshold>-6.2023386359214783e-02</stageThreshold>
      <weakClassifiers>
        <_>
          <internalNodes>
            0 -1 9 1.3359665870666504e-01</internalNodes>
          <leafValues>
            -8.2633054256439209e-01 7.5025177001953125e-01</leafValues></_>
        <_>
          <internalNodes>
            0 -1 19 -2.1970070898532867e-02</internalNodes>
          <leafValues>
            -9.3361359834671021e-01 3.9037704467773438e-01</leafValues></_>
        <_>
          <internalNodes>
            0 -1 14 5.5826839525252581e-04</internalNodes>
          <leafValues>
            3.7393009662628174e-01 -9.0812033414840698e-01</leafValues></_></weakClassifiers></_>
    <!-- stage 5 -->
    <_>
      <maxWeakCount>6</maxWeakCount>
      <stageThreshold>-8.3254480361938477e-01</stageThreshold>
      <weakClassifiers>
        <_>
          <internalNodes>
            0 -1 23 3.2889592694118619e-04</internalNodes>
          <leafValues>
            5.7385855913162231e-01 -8.1974250078201294e-01</leafValues></_>
        <_>
          <internalNodes>
            0 -1 5 5.0563561916351318e-01</internalNodes>
          <leafValues>
            -5.5820655822753906e-01 6.7479878664016724e-01</leafValues></_>
        <_>
          <internalNodes>
            0 -1 27 -1.8252973677590489e-04</internalNodes>
          <leafValues>
            -8.6023706197738647e-01 3.9116221666336060e-01</leafValues></_>
        <_>
          <internalNodes>
            0 -1 20 5.7075708173215389e-04</internalNodes>
          <leafValues>
            -6.5980291366577148e-01 3.7198400497436523e-01</leafValues></_>
        <_>
          <internalNodes>
            0 -1 25 -2.7663435321301222e-04</internalNodes>
          <leafValues>
            -9.0439617633819580e-01 2.8049346804618835e-01</leafValues></_>
        <_>
          <internalNodes>
            0 -1 1 1.4544975943863392e-02</internalNodes>
          <leafValues>
            -4.9823543429374695e-01 5.0480926036834717e-01</leafValues></_></weakClassifiers></_>
    <!-- stage 6 -->
    <_>
      <maxWeakCount>4</maxWeakCount>
      <stageThreshold>-2.6241320371627808e-01</stageThreshold>
      <weakClassifiers>
        <_>
          <internalNodes>
            0 -1 16 -1.3610133901238441e-02</internalNodes>
          <leafValues>
            -9.6899223327636719e-01 5.5123215913772583e-01</leafValues></_>
        <_>
          <internalNodes>
            0 -1 22 1.7453240230679512e-02</internalNodes>
          <leafValues>
            -5.3091073036193848e-01 5.8703225851058960e-01</leafValues></_>
        <_>
          <internalNodes>
            0 -1 30 -2.3929939197842032e-04</internalNodes>
          <leafValues>
            -8.3059036731719971e-01 3.5187736153602600e-01</leafValues></_>
        <_>
          <internalNodes>
            0 -1 3 3.7348596379160881e-03</internalNodes>
          <leafValues>
            -4.9175202846527100e-01 5.4785573482513428e-01</leafValues></_></weakClassifiers></_>
    <!-- stage 7 -->
    <_>
      <maxWeakCount>5</maxWeakCount>
      <stageThreshold>-5.9073996543884277e-01</stageThreshold>
      <weakClassifiers>
        <_>
          <internalNodes>
            0 -1 18 1.4196312986314297e-03</internalNodes>
          <leafValues>
            6.2580054998397827e-01 -9.1050583124160767e-01</leafValues></_>
        <_>
          <internalNodes>
            0 -1 7 4.4033879041671753e-01</internalNodes>
          <leafValues>
            -4.7341337800025940e-01 6.1260849237442017e-01</leafValues></_>
        <_>
          <internalNodes>
            0 -1 29 -2.1694621536880732e-03</internalNodes>
          <leafValues>
            2.9476791620254517e-01 -9.4908857345581055e-01</leafValues></_>
        <_>
          <internalNodes>
            0 -1 0 1.1291394941508770e-02</internalNodes>
          <leafValues>
            -5.9208548069000244e-01 3.9413127303123474e-01</leafValues></_>
        <_>
          <internalNodes>
            0 -1 31 -3.3443972934037447e-03</internalNodes>
          <leafValues>
            5.3305691480636597e-01 -4.4580957293510437e-01</leafValues></_></weakClassifiers></_>
    <!-- stage 8 -->
    <_>
      <maxWeakCount>6</maxWeakCount>
      <stageThreshold>-5.5105036497116089e-01</stageThreshold>
      <weakClassifiers>
        <_>
          <internalNodes>
            0 -1 28 -4.1989903547801077e-04</internalNodes>
          <leafValues>
            -8.3294665813446045e-01 5.5487000942230225e-01</leafValues></_>
        <_>
          <internalNodes>
            0 -1 10 2.1885707974433899e-01</internalNodes>
          <leafValues>
            -6.6218382120132446e-01 3.9601403474807739e-01</leafValues></_>
        <_>
          <internalNodes>
            0 -1 15 -6.7848898470401764e-04</internalNodes>
          <leafValues>
            3.0480572581291199e-01 -8.7298232316970825e-01</leafValues></_>
        <_>
          <internalNodes>
            0 -1 12 1.0067880153656006e-02</internalNodes>
          <leafValues>
            1.9503588974475861e-01 -8.9127606153488159e-01</leafValues></_>
        <_>
          <internalNodes>
            0 -1 11 -2.3140911012887955e-02</internalNodes>
          <leafValues>
            -9.0974771976470947e-01 2.7307295799255371e-01</leafValues></_>
        <_>
          <internalNodes>
            0 -1 17 -1.3288078829646111e-02</internalNodes>
          <leafValues>
            -9.0875893831253052e-01 1.7116549611091614e-01</leafValues></_></weakClassifiers></_></stages>
  <features>
    <_>
      <rects>
        <_>
          0 7 4 14 -1.</_>
        <_>
          2 7 2 14 2.</_></rects>
      <tilted>0</tilted></_>
    <_>
      <rects>
        <_>
          0 10 4 11 -1.</_>
        <_>
          2 10 2 11 2.</_></rects>
      <tilted>0</tilted></_>
    <_>
      <rects>
        <_>
          0 11 4 10 -1.</_>
        <_>
          2 11 2 10 2.</_></rects>
      <tilted>0</tilted></_>
    <_>
      <rects>
        <_>
          0 12 2 7 -1.</_>
        <_>
          1 12 1 7 2.</_></rects>
      <tilted>0</tilted></_>
    <_>
      <rects>
        <_>
          1 0 28 30 -1.</_>
        <_>
          1 10 28 10 3.</_></rects>
      <tilted>0</tilted></_>
    <_>
      <rects>
        <_>
          2 0 26 30 -1.</_>
        <_>
          2 10 26 10 3.</_></rects>
      <tilted>0</tilted></_>
    <_>
      <rects>
        <_>
          2 2 27 27 -1.</_>
        <_>
          2 11 27 9 3.</_></rects>
      <tilted>0</tilted></_>
    <_>
      <rects>
        <_>
          2 3 28 27 -1.</_>
        <_>
          2 12 28 9 3.</_></rects>
      <tilted>0</tilted></_>
    <_>
      <rects>
        <_>
          2 15 19 14 -1.</_>
        <_>
          2 22 19 7 2.</_></rects>
      <tilted>0</tilted></_>
    <_>
      <rects>
        <_>
          3 2 25 27 -1.</_>
        <_>
          3 11 25 9 3.</_></rects>
      <tilted>0</tilted></_>
    <_>
      <rects>
        <_>
          3 5 26 24 -1.</_>
        <_>
          3 13 26 8 3.</_></rects>
      <tilted>0</tilted></_>
    <_>
      <rects>
        <_>
          3 12 24 7 -1.</_>
        <_>
          15 12 12 7 2.</_></rects>
      <tilted>0</tilted></_>
    <_>
      <rects>
        <_>
          6 12 18 7 -1.</_>
        <_>
          15 12 9 7 2.</_></rects>
      <tilted>0</tilted></_>
    <_>
      <rects>
        <_>
          7 9 15 12 -1.</_>
        <_>
          12 9 5 12 3.</_></rects>
      <tilted>0</tilted></_>
    <_>
      <rects>
        <_>
          9 12 12 7 -1.</_>
        <_>
          15 12 6 7 2.</_></rects>
      <tilted>0</tilted></_>
    <_>
      <rects>
        <_>
          10 11 7 4 -1.</_>
        <_>
          10 13 7 2 2.</_></rects>
      <tilted>0</tilted></_>
    <_>
      <rects>
        <_>
          10 11 9 10 -1.</_>
        <_>
          10 16 9 5 2.</_></rects>
      <tilted>0</tilted></_>
    <_>
      <rects>
        <_>
          11 10 7 9 -1.</_>
        <_>
          11 13 7 3 3.</_></rects>
      <tilted>0</tilted></_>
    <_>
      <rects>
        <_>
          11 10 8 10 -1.</_>
        <_>
          11 15 8 5 2.</_></rects>
      <tilted>0</tilted></_>
    <_>
      <rects>
        <_>
          12 10 10 10 -1.</_>
        <_>
          17 10 5 10 2.</_></rects>
      <tilted>0</tilted></_>
    <_>
      <rects>
        <_>
          12 14 3 3 -1.</_>
        <_>
          13 14 1 3 3.</_></rects>
      <tilted>0</tilted></_>
    <_>
      <rects>
        <_>
          12 15 6 6 -1.</_>
        <_>
          12 18 6 3 2.</_></rects>
      <tilted>0</tilted></_>
    <_>
      <rects>
        <_>
          13 5 6 6 -1.</_>
        <_>
          13 8 6 3 2.</_></rects>
      <tilted>0</tilted></_>
    <_>
      <rects>
        <_>
          13 10 5 2 -1.</_>
        <_>
          13 11 5 1 2.</_></rects>
      <tilted>0</tilted></_>
    <_>
      <rects>
        <_>
          13 13 5 4 -1.</_>
        <_>
          13 15 5 2 2.</_></rects>
      <tilted>0</tilted></_>
    <_>
      <rects>
        <_>
          13 20 4 1 -1.</_>
        <_>
          15 20 2 1 2.</_></rects>
      <tilted>0</tilted></_>
    <_>
      <rects>
        <_>
          14 9 4 12 -1.</_>
        <_>
          14 13 4 4 3.</_></rects>
      <tilted>0</tilted></_>
    <_>
      <rects>
        <_>
          14 10 2 2 -1.</_>
        <_>
          14 11 2 1 2.</_></rects>
      <tilted>0</tilted></_>
    <_>
      <rects>
        <_>
          14 10 9 1 -1.</_>
        <_>
          17 10 3 1 3.</_></rects>
      <tilted>0</tilted></_>
    <_>
      <rects>
        <_>
          14 10 4 6 -1.</_>
        <_>
          14 13 4 3 2.</_></rects>
      <tilted>0</tilted></_>
    <_>
      <rects>
        <_>
          20 14 6 2 -1.</_>
        <_>
          22 14 2 2 3.</_></rects>
      <tilted>0</tilted></_>
    <_>
      <rects>
        <_>
          28 10 2 10 -1.</_>
        <_>
          29 10 1 10 2.</_></rects>
      <tilted>0</tilted></_>
    <_>
      <rects>
        <_>
          28 11 2 9 -1.</_>
        <_>
          29 11 1 9 2.</_></rects>
      <tilted>0</tilted></_></features></cascade>
</opencv_storage>
