<?xml version="1.0"?>
<opencv_storage>
<cascade>
  <stageType>BOOST</stageType>
  <featureType>HAAR</featureType>
  <height>30</height>
  <width>30</width>
  <stageParams>
    <boostType>GAB</boostType>
    <minHitRate>9.9500000476837158e-01</minHitRate>
    <maxFalseAlarm>5.0000000000000000e-01</maxFalseAlarm>
    <weightTrimRate>9.4999999999999996e-01</weightTrimRate>
    <maxDepth>1</maxDepth>
    <maxWeakCount>100</maxWeakCount></stageParams>
  <featureParams>
    <maxCatCount>0</maxCatCount>
    <featSize>1</featSize>
    <mode>BASIC</mode></featureParams>
  <stageNum>8</stageNum>
  <stages>
    <!-- stage 0 -->
    <_>
      <maxWeakCount>2</maxWeakCount>
      <stageThreshold>-8.8559366762638092e-02</stageThreshold>
      <weakClassifiers>
        <_>
          <internalNodes>
            0 -1 6 2.7328178286552429e-01</internalNodes>
          <leafValues>
            -7.1081680059432983e-01 8.6064660549163818e-01</leafValues></_>
        <_>
          <internalNodes>
            0 -1 30 -2.1995087154209614e-03</internalNodes>
          <leafValues>
            6.6160196065902710e-01 -9.4920599460601807e-01</leafValues></_></weakClassifiers></_>
    <!-- stage 1 -->
    <_>
      <maxWeakCount>4</maxWeakCount>
      <stageThreshold>-7.7971816062927246e-01</stageThreshold>
      <weakClassifiers>
        <_>
          <internalNodes>
            0 -1 9 1.3845795765519142e-02</internalNodes>
          <leafValues>
            -9.5524954795837402e-01 6.8664467334747314e-01</leafValues></_>
        <_>
          <internalNodes>
            0 -1 7 4.1880661249160767e-01</internalNodes>
          <leafValues>
            -6.6939312219619751e-01 7.7955311536788940e-01</leafValues></_>
        <_>
          <internalNodes>
            0 -1 32 1.2732780305668712e-03</internalNodes>
          <leafValues>
            -9.0996021032333374e-01 5.5960607528686523e-01</leafValues></_>
        <_>
          <internalNodes>
            0 -1 16 -1.3902869541198015e-03</internalNodes>
          <leafValues>
            2.8531843423843384e-01 -9.1913723945617676e-01</leafValues></_></weakClassifiers></_>
    <!-- stage 2 -->
    <_>
      <maxWeakCount>4</maxWeakCount>
      <stageThreshold>-4.4647783041000366e-01</stageThreshold>
      <weakClassifiers>
        <_>
          <internalNodes>
            0 -1 15 3.1028035283088684e-01</internalNodes>
          <leafValues>
            -4.7999998927116394e-01 8.1176471710205078e-01</leafValues></_>
        <_>
          <internalNodes>
            0 -1 21 -2.5228275917470455e-03</internalNodes>
          <leafValues>
            4.8114657402038574e-01 -9.4345867633819580e-01</leafValues></_>
        <_>
          <internalNodes>
            0 -1 1 9.0672597289085388e-03</internalNodes>
          <leafValues>
            -6.0408520698547363e-01 6.3128083944320679e-01</leafValues></_>
        <_>
          <internalNodes>
            0 -1 12 -2.1820031106472015e-02</internalNodes>
          <leafValues>
            -9.6534699201583862e-01 2.8930130600929260e-01</leafValues></_></weakClassifiers></_>
    <!-- stage 3 -->
    <_>
      <maxWeakCount>5</maxWeakCount>
      <stageThreshold>-8.6625707149505615e-01</stageThreshold>
      <weakClassifiers>
        <_>
          <internalNodes>
            0 -1 2 5.6860363110899925e-03</internalNodes>
          <leafValues>
            -4.8689955472946167e-01 7.5448429584503174e-01</leafValues></_>
        <_>
          <internalNodes>
            0 -1 18 -2.5933129712939262e-02</internalNodes>
          <leafValues>
            6.3271337747573853e-01 -5.0359636545181274e-01</leafValues></_>
        <_>
          <internalNodes>
            0 -1 13 1.9418797455728054e-03</internalNodes>
          <leafValues>
            3.7949973344802856e-01 -8.9199984073638916e-01</leafValues></_>
        <_>
          <internalNodes>
            0 -1 27 4.8110075294971466e-03</internalNodes>
          <leafValues>
            -5.1796698570251465e-01 5.7000160217285156e-01</leafValues></_>
        <_>
          <internalNodes>
            0 -1 10 -2.5087747722864151e-02</internalNodes>
          <leafValues>
            -9.7801911830902100e-01 2.6270610094070435e-01</leafValues></_></weakClassifiers></_>
    <!-- stage 4 -->
    <_>
      <maxWeakCount>6</maxWeakCount>
      <stageThreshold>-1.0300407409667969e+00</stageThreshold>
      <weakClassifiers>
        <_>
          <internalNodes>
            0 -1 5 1.3950413465499878e-01</internalNodes>
          <leafValues>
            -6.6902405023574829e-01 6.8891119956970215e-01</leafValues></_>
        <_>
          <internalNodes>
            0 -1 20 -3.7349560443544760e-05</internalNodes>
          <leafValues>
            4.2192474007606506e-01 -8.9478713274002075e-01</leafValues></_>
        <_>
          <internalNodes>
            0 -1 22 5.1524851005524397e-04</internalNodes>
          <leafValues>
            -6.4795500040054321e-01 4.0640175342559814e-01</leafValues></_>
        <_>
          <internalNodes>
            0 -1 37 -2.5893645361065865e-03</internalNodes>
          <leafValues>
            4.9276784062385559e-01 -5.2420228719711304e-01</leafValues></_>
        <_>
          <internalNodes>
            0 -1 19 -4.4583217822946608e-04</internalNodes>
          <leafValues>
            -9.1452217102050781e-01 2.5822716951370239e-01</leafValues></_>
        <_>
          <internalNodes>
            0 -1 28 2.4951383238658309e-04</internalNodes>
          <leafValues>
            2.4009150266647339e-01 -9.2720478773117065e-01</leafValues></_></weakClassifiers></_>
    <!-- stage 5 -->
    <_>
      <maxWeakCount>6</maxWeakCount>
      <stageThreshold>-8.1398004293441772e-01</stageThreshold>
      <weakClassifiers>
        <_>
          <internalNodes>
            0 -1 25 -5.4932706989347935e-03</internalNodes>
          <leafValues>
            -9.2039799690246582e-01 5.5265450477600098e-01</leafValues></_>
        <_>
          <internalNodes>
            0 -1 24 -6.5573415486142039e-04</internalNodes>
          <leafValues>
            3.6590570211410522e-01 -9.3447941541671753e-01</leafValues></_>
        <_>
          <internalNodes>
            0 -1 4 5.5606836080551147e-01</internalNodes>
          <leafValues>
            -5.5069255828857422e-01 6.1266136169433594e-01</leafValues></_>
        <_>
          <internalNodes>
            0 -1 14 3.3165309578180313e-03</internalNodes>
          <leafValues>
            -9.0863072872161865e-01 2.8740054368972778e-01</leafValues></_>
        <_>
          <internalNodes>
            0 -1 0 1.4836079441010952e-02</internalNodes>
          <leafValues>
            -4.5685333013534546e-01 5.6491982936859131e-01</leafValues></_>
        <_>
          <internalNodes>
            0 -1 35 2.3633998353034258e-04</internalNodes>
          <leafValues>
            -7.2702491283416748e-01 3.2066759467124939e-01</leafValues></_></weakClassifiers></_>
    <!-- stage 6 -->
    <_>
      <maxWeakCount>5</maxWeakCount>
      <stageThreshold>-4.1311031579971313e-01</stageThreshold>
      <weakClassifiers>
        <_>
          <internalNodes>
            0 -1 31 -2.6494367048144341e-03</internalNodes>
          <leafValues>
            5.9619736671447754e-01 -8.4928715229034424e-01</leafValues></_>
        <_>
          <internalNodes>
            0 -1 33 1.0788948275148869e-02</internalNodes>
          <leafValues>
            -7.9542678594589233e-01 4.1511201858520508e-01</leafValues></_>
        <_>
          <internalNodes>
            0 -1 36 -1.0374234989285469e-02</internalNodes>
          <leafValues>
            5.2602732181549072e-01 -4.6650442481040955e-01</leafValues></_>
        <_>
          <internalNodes>
            0 -1 26 -5.6539941579103470e-04</internalNodes>
          <leafValues>
            -9.2404800653457642e-01 2.6386240124702454e-01</leafValues></_>
        <_>
          <internalNodes>
            0 -1 23 2.1519114670809358e-04</internalNodes>
          <leafValues>
            2.2370685636997223e-01 -9.0346437692642212e-01</leafValues></_></weakClassifiers></_>
    <!-- stage 7 -->
    <_>
      <maxWeakCount>7</maxWeakCount>
      <stageThreshold>-1.1346846818923950e+00</stageThreshold>
      <weakClassifiers>
        <_>
          <internalNodes>
            0 -1 29 -1.6779461293481290e-04</internalNodes>
          <leafValues>
            -8.0851066112518311e-01 5.7399106025695801e-01</leafValues></_>
        <_>
          <internalNodes>
            0 -1 34 3.0025717569515109e-04</internalNodes>
          <leafValues>
            -4.5420011878013611e-01 5.9008604288101196e-01</leafValues></_>
        <_>
          <internalNodes>
            0 -1 38 -3.2262047752737999e-03</internalNodes>
          <leafValues>
            6.1008971929550171e-01 -3.9808973670005798e-01</leafValues></_>
        <_>
          <internalNodes>
            0 -1 3 3.3011571504175663e-03</internalNodes>
          <leafValues>
            -4.4845804572105408e-01 4.9673333764076233e-01</leafValues></_>
        <_>
          <internalNodes>
            0 -1 17 -3.7288464955054224e-04</internalNodes>
          <leafValues>
            2.7577951550483704e-01 -7.3751157522201538e-01</leafValues></_>
        <_>
          <internalNodes>
            0 -1 8 2.8838503640145063e-03</internalNodes>
          <leafValues>
            -9.0708982944488525e-01 2.5678747892379761e-01</leafValues></_>
        <_>
          <internalNodes>
            0 -1 11 6.2459162436425686e-03</internalNodes>
          <leafValues>
            2.2338251769542694e-01 -9.4499939680099487e-01</leafValues></_></weakClassifiers></_></stages>
  <features>
    <_>
      <rects>
        <_>
          0 10 4 10 -1.</_>
        <_>
          2 10 2 10 2.</_></rects>
      <tilted>0</tilted></_>
    <_>
      <rects>
        <_>
          0 10 4 11 -1.</_>
        <_>
          2 10 2 11 2.</_></rects>
      <tilted>0</tilted></_>
    <_>
      <rects>
        <_>
          0 11 4 8 -1.</_>
        <_>
          2 11 2 8 2.</_></rects>
      <tilted>0</tilted></_>
    <_>
      <rects>
        <_>
          0 12 2 7 -1.</_>
        <_>
          1 12 1 7 2.</_></rects>
      <tilted>0</tilted></_>
    <_>
      <rects>
        <_>
          1 0 27 30 -1.</_>
        <_>
          1 10 27 10 3.</_></rects>
      <tilted>0</tilted></_>
    <_>
      <rects>
        <_>
          1 5 28 24 -1.</_>
        <_>
          1 13 28 8 3.</_></rects>
      <tilted>0</tilted></_>
    <_>
      <rects>
        <_>
          2 0 26 30 -1.</_>
        <_>
          2 10 26 10 3.</_></rects>
      <tilted>0</tilted></_>
    <_>
      <rects>
        <_>
          2 0 27 30 -1.</_>
        <_>
          2 10 27 10 3.</_></rects>
      <tilted>0</tilted></_>
    <_>
      <rects>
        <_>
          6 9 12 9 -1.</_>
        <_>
          12 9 6 9 2.</_></rects>
      <tilted>0</tilted></_>
    <_>
      <rects>
        <_>
          6 9 18 12 -1.</_>
        <_>
          12 9 6 12 3.</_></rects>
      <tilted>0</tilted></_>
    <_>
      <rects>
        <_>
          6 12 20 7 -1.</_>
        <_>
          16 12 10 7 2.</_></rects>
      <tilted>0</tilted></_>
    <_>
      <rects>
        <_>
          6 14 10 3 -1.</_>
        <_>
          11 14 5 3 2.</_></rects>
      <tilted>0</tilted></_>
    <_>
      <rects>
        <_>
          7 11 16 9 -1.</_>
        <_>
          15 11 8 9 2.</_></rects>
      <tilted>0</tilted></_>
    <_>
      <rects>
        <_>
          8 11 14 8 -1.</_>
        <_>
          15 11 7 8 2.</_></rects>
      <tilted>0</tilted></_>
    <_>
      <rects>
        <_>
          8 12 12 8 -1.</_>
        <_>
          12 12 4 8 3.</_></rects>
      <tilted>0</tilted></_>
    <_>
      <rects>
        <_>
          9 0 19 30 -1.</_>
        <_>
          9 10 19 10 3.</_></rects>
      <tilted>0</tilted></_>
    <_>
      <rects>
        <_>
          11 12 10 8 -1.</_>
        <_>
          16 12 5 8 2.</_></rects>
      <tilted>0</tilted></_>
    <_>
      <rects>
        <_>
          11 14 6 6 -1.</_>
        <_>
          11 16 6 2 3.</_></rects>
      <tilted>0</tilted></_>
    <_>
      <rects>
        <_>
          11 19 8 8 -1.</_>
        <_>
          11 23 8 4 2.</_></rects>
      <tilted>0</tilted></_>
    <_>
      <rects>
        <_>
          12 10 12 1 -1.</_>
        <_>
          16 10 4 1 3.</_></rects>
      <tilted>0</tilted></_>
    <_>
      <rects>
        <_>
          12 10 6 4 -1.</_>
        <_>
          12 12 6 2 2.</_></rects>
      <tilted>0</tilted></_>
    <_>
      <rects>
        <_>
          12 12 6 9 -1.</_>
        <_>
          12 15 6 3 3.</_></rects>
      <tilted>0</tilted></_>
    <_>
      <rects>
        <_>
          12 14 3 3 -1.</_>
        <_>
          13 14 1 3 3.</_></rects>
      <tilted>0</tilted></_>
    <_>
      <rects>
        <_>
          13 10 4 2 -1.</_>
        <_>
          13 11 4 1 2.</_></rects>
      <tilted>0</tilted></_>
    <_>
      <rects>
        <_>
          13 10 4 10 -1.</_>
        <_>
          13 15 4 5 2.</_></rects>
      <tilted>0</tilted></_>
    <_>
      <rects>
        <_>
          13 11 4 10 -1.</_>
        <_>
          13 16 4 5 2.</_></rects>
      <tilted>0</tilted></_>
    <_>
      <rects>
        <_>
          13 20 9 1 -1.</_>
        <_>
          16 20 3 1 3.</_></rects>
      <tilted>0</tilted></_>
    <_>
      <rects>
        <_>
          14 6 4 4 -1.</_>
        <_>
          14 8 4 2 2.</_></rects>
      <tilted>0</tilted></_>
    <_>
      <rects>
        <_>
          14 10 4 1 -1.</_>
        <_>
          16 10 2 1 2.</_></rects>
      <tilted>0</tilted></_>
    <_>
      <rects>
        <_>
          14 10 2 2 -1.</_>
        <_>
          14 11 2 1 2.</_></rects>
      <tilted>0</tilted></_>
    <_>
      <rects>
        <_>
          14 10 4 6 -1.</_>
        <_>
          14 13 4 3 2.</_></rects>
      <tilted>0</tilted></_>
    <_>
      <rects>
        <_>
          14 11 4 6 -1.</_>
        <_>
          14 14 4 3 2.</_></rects>
      <tilted>0</tilted></_>
    <_>
      <rects>
        <_>
          14 15 4 6 -1.</_>
        <_>
          14 18 4 3 2.</_></rects>
      <tilted>0</tilted></_>
    <_>
      <rects>
        <_>
          16 3 2 27 -1.</_>
        <_>
          16 12 2 9 3.</_></rects>
      <tilted>0</tilted></_>
    <_>
      <rects>
        <_>
          16 14 3 1 -1.</_>
        <_>
          17 14 1 1 3.</_></rects>
      <tilted>0</tilted></_>
    <_>
      <rects>
        <_>
          20 14 6 3 -1.</_>
        <_>
          22 14 2 3 3.</_></rects>
      <tilted>0</tilted></_>
    <_>
      <rects>
        <_>
          26 9 4 12 -1.</_>
        <_>
          28 9 2 12 2.</_></rects>
      <tilted>0</tilted></_>
    <_>
      <rects>
        <_>
          28 8 2 13 -1.</_>
        <_>
          29 8 1 13 2.</_></rects>
      <tilted>0</tilted></_>
    <_>
      <rects>
        <_>
          28 11 2 9 -1.</_>
        <_>
          29 11 1 9 2.</_></rects>
      <tilted>0</tilted></_></features></cascade>
</opencv_storage>
