<?xml version="1.0"?>
<opencv_storage>
<cascade>
  <stageType>BOOST</stageType>
  <featureType>HAAR</featureType>
  <height>20</height>
  <width>20</width>
  <stageParams>
    <boostType>GAB</boostType>
    <minHitRate>9.9500000476837158e-01</minHitRate>
    <maxFalseAlarm>5.0000000000000000e-01</maxFalseAlarm>
    <weightTrimRate>9.4999999999999996e-01</weightTrimRate>
    <maxDepth>1</maxDepth>
    <maxWeakCount>100</maxWeakCount></stageParams>
  <featureParams>
    <maxCatCount>0</maxCatCount>
    <featSize>1</featSize>
    <mode>BASIC</mode></featureParams>
  <stageNum>8</stageNum>
  <stages>
    <!-- stage 0 -->
    <_>
      <maxWeakCount>2</maxWeakCount>
      <stageThreshold>-2.4827007204294205e-02</stageThreshold>
      <weakClassifiers>
        <_>
          <internalNodes>
            0 -1 13 5.6785203516483307e-02</internalNodes>
          <leafValues>
            -8.0659341812133789e-01 9.1284918785095215e-01</leafValues></_>
        <_>
          <internalNodes>
            0 -1 23 2.3251783102750778e-02</internalNodes>
          <leafValues>
            -9.0480387210845947e-01 7.8176641464233398e-01</leafValues></_></weakClassifiers></_>
    <!-- stage 1 -->
    <_>
      <maxWeakCount>3</maxWeakCount>
      <stageThreshold>-8.6821639537811279e-01</stageThreshold>
      <weakClassifiers>
        <_>
          <internalNodes>
            0 -1 1 4.3871007859706879e-02</internalNodes>
          <leafValues>
            -7.6109212636947632e-01 8.6161452531814575e-01</leafValues></_>
        <_>
          <internalNodes>
            0 -1 15 2.3633336648344994e-02</internalNodes>
          <leafValues>
            -7.8426098823547363e-01 8.3122205734252930e-01</leafValues></_>
        <_>
          <internalNodes>
            0 -1 14 8.1633431836962700e-03</internalNodes>
          <leafValues>
            -7.1996116638183594e-01 6.7713671922683716e-01</leafValues></_></weakClassifiers></_>
    <!-- stage 2 -->
    <_>
      <maxWeakCount>2</maxWeakCount>
      <stageThreshold>-1.0875923931598663e-01</stageThreshold>
      <weakClassifiers>
        <_>
          <internalNodes>
            0 -1 11 -7.3489017784595490e-02</internalNodes>
          <leafValues>
            7.4664682149887085e-01 -8.7772923707962036e-01</leafValues></_>
        <_>
          <internalNodes>
            0 -1 2 8.4152325987815857e-02</internalNodes>
          <leafValues>
            -6.6561269760131836e-01 7.6897001266479492e-01</leafValues></_></weakClassifiers></_>
    <!-- stage 3 -->
    <_>
      <maxWeakCount>5</maxWeakCount>
      <stageThreshold>-8.1189316511154175e-01</stageThreshold>
      <weakClassifiers>
        <_>
          <internalNodes>
            0 -1 20 5.9293913654983044e-03</internalNodes>
          <leafValues>
            -6.2869197130203247e-01 8.5388129949569702e-01</leafValues></_>
        <_>
          <internalNodes>
            0 -1 21 1.7366427928209305e-02</internalNodes>
          <leafValues>
            -6.6908484697341919e-01 7.0318800210952759e-01</leafValues></_>
        <_>
          <internalNodes>
            0 -1 3 2.2682370617985725e-02</internalNodes>
          <leafValues>
            -8.2629793882369995e-01 4.8896345496177673e-01</leafValues></_>
        <_>
          <internalNodes>
            0 -1 8 8.8399678468704224e-02</internalNodes>
          <leafValues>
            -4.5769748091697693e-01 7.9842960834503174e-01</leafValues></_>
        <_>
          <internalNodes>
            0 -1 24 1.7473157495260239e-02</internalNodes>
          <leafValues>
            -7.8279137611389160e-01 4.5461770892143250e-01</leafValues></_></weakClassifiers></_>
    <!-- stage 4 -->
    <_>
      <maxWeakCount>4</maxWeakCount>
      <stageThreshold>-3.2123523950576782e-01</stageThreshold>
      <weakClassifiers>
        <_>
          <internalNodes>
            0 -1 22 3.7113516591489315e-03</internalNodes>
          <leafValues>
            -5.5889147520065308e-01 7.5463467836380005e-01</leafValues></_>
        <_>
          <internalNodes>
            0 -1 26 -2.3956568911671638e-02</internalNodes>
          <leafValues>
            5.3853076696395874e-01 -7.3225414752960205e-01</leafValues></_>
        <_>
          <internalNodes>
            0 -1 9 9.7893647849559784e-02</internalNodes>
          <leafValues>
            -6.7347788810729980e-01 5.6828105449676514e-01</leafValues></_>
        <_>
          <internalNodes>
            0 -1 5 -5.2778601646423340e-02</internalNodes>
          <leafValues>
            4.0162929892539978e-01 -9.8155516386032104e-01</leafValues></_></weakClassifiers></_>
    <!-- stage 5 -->
    <_>
      <maxWeakCount>5</maxWeakCount>
      <stageThreshold>-9.8017585277557373e-01</stageThreshold>
      <weakClassifiers>
        <_>
          <internalNodes>
            0 -1 6 -2.2158470004796982e-02</internalNodes>
          <leafValues>
            -7.6716417074203491e-01 6.9655174016952515e-01</leafValues></_>
        <_>
          <internalNodes>
            0 -1 7 7.8420758247375488e-02</internalNodes>
          <leafValues>
            -4.9571561813354492e-01 7.1194118261337280e-01</leafValues></_>
        <_>
          <internalNodes>
            0 -1 4 1.7341110855340958e-02</internalNodes>
          <leafValues>
            -7.2894591093063354e-01 5.0062108039855957e-01</leafValues></_>
        <_>
          <internalNodes>
            0 -1 25 1.9356451928615570e-02</internalNodes>
          <leafValues>
            -8.0440235137939453e-01 4.2130091786384583e-01</leafValues></_>
        <_>
          <internalNodes>
            0 -1 18 -6.1912676319479942e-03</internalNodes>
          <leafValues>
            5.8648526668548584e-01 -5.6501215696334839e-01</leafValues></_></weakClassifiers></_>
    <!-- stage 6 -->
    <_>
      <maxWeakCount>5</maxWeakCount>
      <stageThreshold>-1.0031857490539551e+00</stageThreshold>
      <weakClassifiers>
        <_>
          <internalNodes>
            0 -1 10 2.1943099796772003e-02</internalNodes>
          <leafValues>
            -8.5185188055038452e-01 6.2962961196899414e-01</leafValues></_>
        <_>
          <internalNodes>
            0 -1 17 2.1045848727226257e-02</internalNodes>
          <leafValues>
            -6.9253772497177124e-01 5.4329651594161987e-01</leafValues></_>
        <_>
          <internalNodes>
            0 -1 0 8.0775052309036255e-02</internalNodes>
          <leafValues>
            -5.4438990354537964e-01 6.6053086519241333e-01</leafValues></_>
        <_>
          <internalNodes>
            0 -1 14 9.7287325188517570e-03</internalNodes>
          <leafValues>
            -6.7052334547042847e-01 5.4222589731216431e-01</leafValues></_>
        <_>
          <internalNodes>
            0 -1 28 4.1888793930411339e-04</internalNodes>
          <leafValues>
            2.7463561296463013e-01 -9.6591895818710327e-01</leafValues></_></weakClassifiers></_>
    <!-- stage 7 -->
    <_>
      <maxWeakCount>4</maxWeakCount>
      <stageThreshold>-7.6142328977584839e-01</stageThreshold>
      <weakClassifiers>
        <_>
          <internalNodes>
            0 -1 27 -1.5404354780912399e-03</internalNodes>
          <leafValues>
            -8.9118200540542603e-01 6.3451778888702393e-01</leafValues></_>
        <_>
          <internalNodes>
            0 -1 12 2.9500670731067657e-02</internalNodes>
          <leafValues>
            -7.5855183601379395e-01 4.5625174045562744e-01</leafValues></_>
        <_>
          <internalNodes>
            0 -1 19 -5.7410667650401592e-03</internalNodes>
          <leafValues>
            -8.8637775182723999e-01 3.5545596480369568e-01</leafValues></_>
        <_>
          <internalNodes>
            0 -1 16 7.6692076399922371e-03</internalNodes>
          <leafValues>
            2.4898849427700043e-01 -9.6897083520889282e-01</leafValues></_></weakClassifiers></_></stages>
  <features>
    <_>
      <rects>
        <_>
          0 5 6 11 -1.</_>
        <_>
          3 5 3 11 2.</_></rects>
      <tilted>0</tilted></_>
    <_>
      <rects>
        <_>
          0 8 9 5 -1.</_>
        <_>
          3 8 3 5 3.</_></rects>
      <tilted>0</tilted></_>
    <_>
      <rects>
        <_>
          0 8 9 6 -1.</_>
        <_>
          3 8 3 6 3.</_></rects>
      <tilted>0</tilted></_>
    <_>
      <rects>
        <_>
          2 7 6 7 -1.</_>
        <_>
          4 7 2 7 3.</_></rects>
      <tilted>0</tilted></_>
    <_>
      <rects>
        <_>
          3 11 6 6 -1.</_>
        <_>
          3 11 3 3 2.</_>
        <_>
          6 14 3 3 2.</_></rects>
      <tilted>0</tilted></_>
    <_>
      <rects>
        <_>
          4 7 12 8 -1.</_>
        <_>
          8 7 4 8 3.</_></rects>
      <tilted>0</tilted></_>
    <_>
      <rects>
        <_>
          4 10 12 2 -1.</_>
        <_>
          8 10 4 2 3.</_></rects>
      <tilted>0</tilted></_>
    <_>
      <rects>
        <_>
          5 0 12 6 -1.</_>
        <_>
          5 3 12 3 2.</_></rects>
      <tilted>0</tilted></_>
    <_>
      <rects>
        <_>
          6 0 9 6 -1.</_>
        <_>
          6 3 9 3 2.</_></rects>
      <tilted>0</tilted></_>
    <_>
      <rects>
        <_>
          6 1 9 9 -1.</_>
        <_>
          6 4 9 3 3.</_></rects>
      <tilted>0</tilted></_>
    <_>
      <rects>
        <_>
          6 3 8 6 -1.</_>
        <_>
          6 5 8 2 3.</_></rects>
      <tilted>0</tilted></_>
    <_>
      <rects>
        <_>
          6 5 9 12 -1.</_>
        <_>
          6 9 9 4 3.</_></rects>
      <tilted>0</tilted></_>
    <_>
      <rects>
        <_>
          6 13 8 6 -1.</_>
        <_>
          6 15 8 2 3.</_></rects>
      <tilted>0</tilted></_>
    <_>
      <rects>
        <_>
          7 1 7 9 -1.</_>
        <_>
          7 4 7 3 3.</_></rects>
      <tilted>0</tilted></_>
    <_>
      <rects>
        <_>
          7 10 6 2 -1.</_>
        <_>
          9 10 2 2 3.</_></rects>
      <tilted>0</tilted></_>
    <_>
      <rects>
        <_>
          7 13 7 6 -1.</_>
        <_>
          7 15 7 2 3.</_></rects>
      <tilted>0</tilted></_>
    <_>
      <rects>
        <_>
          8 4 3 14 -1.</_>
        <_>
          8 11 3 7 2.</_></rects>
      <tilted>0</tilted></_>
    <_>
      <rects>
        <_>
          8 14 4 6 -1.</_>
        <_>
          8 16 4 2 3.</_></rects>
      <tilted>0</tilted></_>
    <_>
      <rects>
        <_>
          8 18 6 2 -1.</_>
        <_>
          8 19 6 1 2.</_></rects>
      <tilted>0</tilted></_>
    <_>
      <rects>
        <_>
          9 6 2 8 -1.</_>
        <_>
          9 10 2 4 2.</_></rects>
      <tilted>0</tilted></_>
    <_>
      <rects>
        <_>
          9 8 2 6 -1.</_>
        <_>
          9 10 2 2 3.</_></rects>
      <tilted>0</tilted></_>
    <_>
      <rects>
        <_>
          9 14 4 6 -1.</_>
        <_>
          9 16 4 2 3.</_></rects>
      <tilted>0</tilted></_>
    <_>
      <rects>
        <_>
          10 8 1 6 -1.</_>
        <_>
          10 10 1 2 3.</_></rects>
      <tilted>0</tilted></_>
    <_>
      <rects>
        <_>
          11 8 6 5 -1.</_>
        <_>
          14 8 3 5 2.</_></rects>
      <tilted>0</tilted></_>
    <_>
      <rects>
        <_>
          12 3 4 10 -1.</_>
        <_>
          12 3 2 5 2.</_>
        <_>
          14 8 2 5 2.</_></rects>
      <tilted>0</tilted></_>
    <_>
      <rects>
        <_>
          12 6 6 9 -1.</_>
        <_>
          14 6 2 9 3.</_></rects>
      <tilted>0</tilted></_>
    <_>
      <rects>
        <_>
          12 10 6 8 -1.</_>
        <_>
          12 10 3 4 2.</_>
        <_>
          15 14 3 4 2.</_></rects>
      <tilted>0</tilted></_>
    <_>
      <rects>
        <_>
          15 9 1 6 -1.</_>
        <_>
          15 12 1 3 2.</_></rects>
      <tilted>0</tilted></_>
    <_>
      <rects>
        <_>
          16 9 1 6 -1.</_>
        <_>
          16 12 1 3 2.</_></rects>
      <tilted>0</tilted></_></features></cascade>
</opencv_storage>
