<?xml version="1.0"?>
<opencv_storage>
<cascade>
  <stageType>BOOST</stageType>
  <featureType>HAAR</featureType>
  <height>30</height>
  <width>30</width>
  <stageParams>
    <boostType>GAB</boostType>
    <minHitRate>9.9500000476837158e-01</minHitRate>
    <maxFalseAlarm>5.0000000000000000e-01</maxFalseAlarm>
    <weightTrimRate>9.4999999999999996e-01</weightTrimRate>
    <maxDepth>1</maxDepth>
    <maxWeakCount>100</maxWeakCount></stageParams>
  <featureParams>
    <maxCatCount>0</maxCatCount>
    <featSize>1</featSize>
    <mode>BASIC</mode></featureParams>
  <stageNum>9</stageNum>
  <stages>
    <!-- stage 0 -->
    <_>
      <maxWeakCount>3</maxWeakCount>
      <stageThreshold>-1.1739285662770271e-02</stageThreshold>
      <weakClassifiers>
        <_>
          <internalNodes>
            0 -1 19 -7.8057916834950447e-04</internalNodes>
          <leafValues>
            6.8391346931457520e-01 -9.6515679359436035e-01</leafValues></_>
        <_>
          <internalNodes>
            0 -1 21 -3.1600860529579222e-04</internalNodes>
          <leafValues>
            4.5619753003120422e-01 -9.6780437231063843e-01</leafValues></_>
        <_>
          <internalNodes>
            0 -1 12 -2.6546229491941631e-04</internalNodes>
          <leafValues>
            -8.1248766183853149e-01 4.9721997976303101e-01</leafValues></_></weakClassifiers></_>
    <!-- stage 1 -->
    <_>
      <maxWeakCount>1</maxWeakCount>
      <stageThreshold>6.5941691398620605e-01</stageThreshold>
      <weakClassifiers>
        <_>
          <internalNodes>
            0 -1 3 -2.3980127298273146e-04</internalNodes>
          <leafValues>
            6.5941691398620605e-01 -9.7402596473693848e-01</leafValues></_></weakClassifiers></_>
    <!-- stage 2 -->
    <_>
      <maxWeakCount>2</maxWeakCount>
      <stageThreshold>-2.5068229436874390e-01</stageThreshold>
      <weakClassifiers>
        <_>
          <internalNodes>
            0 -1 3 -1.4941229019314051e-03</internalNodes>
          <leafValues>
            -9.5275592803955078e-01 7.2881358861923218e-01</leafValues></_>
        <_>
          <internalNodes>
            0 -1 5 -2.3850668221712112e-02</internalNodes>
          <leafValues>
            7.0207357406616211e-01 -6.4163339138031006e-01</leafValues></_></weakClassifiers></_>
    <!-- stage 3 -->
    <_>
      <maxWeakCount>1</maxWeakCount>
      <stageThreshold>6.4965516328811646e-01</stageThreshold>
      <weakClassifiers>
        <_>
          <internalNodes>
            0 -1 6 -3.2734830165281892e-04</internalNodes>
          <leafValues>
            6.4965516328811646e-01 -9.7714287042617798e-01</leafValues></_></weakClassifiers></_>
    <!-- stage 4 -->
    <_>
      <maxWeakCount>2</maxWeakCount>
      <stageThreshold>-4.3039742112159729e-01</stageThreshold>
      <weakClassifiers>
        <_>
          <internalNodes>
            0 -1 6 -1.3096828479319811e-03</internalNodes>
          <leafValues>
            -8.7252122163772583e-01 7.6028084754943848e-01</leafValues></_>
        <_>
          <internalNodes>
            0 -1 13 -4.4758201693184674e-04</internalNodes>
          <leafValues>
            -9.4337451457977295e-01 4.4212383031845093e-01</leafValues></_></weakClassifiers></_>
    <!-- stage 5 -->
    <_>
      <maxWeakCount>5</maxWeakCount>
      <stageThreshold>-4.4650837779045105e-01</stageThreshold>
      <weakClassifiers>
        <_>
          <internalNodes>
            0 -1 9 -3.3039844129234552e-04</internalNodes>
          <leafValues>
            -9.0890270471572876e-01 6.0396933555603027e-01</leafValues></_>
        <_>
          <internalNodes>
            0 -1 22 -8.1511316238902509e-05</internalNodes>
          <leafValues>
            3.3207863569259644e-01 -9.6729791164398193e-01</leafValues></_>
        <_>
          <internalNodes>
            0 -1 10 -3.7580143660306931e-02</internalNodes>
          <leafValues>
            6.0192185640335083e-01 -5.3069841861724854e-01</leafValues></_>
        <_>
          <internalNodes>
            0 -1 1 4.3506626388989389e-04</internalNodes>
          <leafValues>
            3.5094967484474182e-01 -8.7339645624160767e-01</leafValues></_>
        <_>
          <internalNodes>
            0 -1 15 -2.1273153834044933e-03</internalNodes>
          <leafValues>
            -8.0245220661163330e-01 3.1006440520286560e-01</leafValues></_></weakClassifiers></_>
    <!-- stage 6 -->
    <_>
      <maxWeakCount>4</maxWeakCount>
      <stageThreshold>-5.1496756076812744e-01</stageThreshold>
      <weakClassifiers>
        <_>
          <internalNodes>
            0 -1 4 -4.7334711416624486e-04</internalNodes>
          <leafValues>
            -9.2788463830947876e-01 5.6304728984832764e-01</leafValues></_>
        <_>
          <internalNodes>
            0 -1 0 7.2813332080841064e-02</internalNodes>
          <leafValues>
            -5.3167194128036499e-01 5.9566867351531982e-01</leafValues></_>
        <_>
          <internalNodes>
            0 -1 2 3.9305316749960184e-04</internalNodes>
          <leafValues>
            3.8531863689422607e-01 -8.4267777204513550e-01</leafValues></_>
        <_>
          <internalNodes>
            0 -1 23 -8.3111482672393322e-04</internalNodes>
          <leafValues>
            2.9633489251136780e-01 -6.5383881330490112e-01</leafValues></_></weakClassifiers></_>
    <!-- stage 7 -->
    <_>
      <maxWeakCount>4</maxWeakCount>
      <stageThreshold>-6.2075936794281006e-01</stageThreshold>
      <weakClassifiers>
        <_>
          <internalNodes>
            0 -1 18 -3.4311242052353919e-04</internalNodes>
          <leafValues>
            -8.9695549011230469e-01 5.6445229053497314e-01</leafValues></_>
        <_>
          <internalNodes>
            0 -1 11 1.9162197713740170e-04</internalNodes>
          <leafValues>
            3.0994907021522522e-01 -9.1485017538070679e-01</leafValues></_>
        <_>
          <internalNodes>
            0 -1 17 7.4325585737824440e-03</internalNodes>
          <leafValues>
            -7.0584774017333984e-01 4.0182599425315857e-01</leafValues></_>
        <_>
          <internalNodes>
            0 -1 16 -9.6186224254779518e-05</internalNodes>
          <leafValues>
            -7.8931295871734619e-01 3.4634435176849365e-01</leafValues></_></weakClassifiers></_>
    <!-- stage 8 -->
    <_>
      <maxWeakCount>5</maxWeakCount>
      <stageThreshold>-6.5438616275787354e-01</stageThreshold>
      <weakClassifiers>
        <_>
          <internalNodes>
            0 -1 20 6.3140632119029760e-04</internalNodes>
          <leafValues>
            5.2735042572021484e-01 -9.2777776718139648e-01</leafValues></_>
        <_>
          <internalNodes>
            0 -1 8 5.9933504089713097e-03</internalNodes>
          <leafValues>
            -5.6552892923355103e-01 4.9691584706306458e-01</leafValues></_>
        <_>
          <internalNodes>
            0 -1 20 -3.7185393739491701e-04</internalNodes>
          <leafValues>
            -9.2554187774658203e-01 2.7383831143379211e-01</leafValues></_>
        <_>
          <internalNodes>
            0 -1 14 -3.1630527228116989e-03</internalNodes>
          <leafValues>
            6.1072438955307007e-01 -4.2691010236740112e-01</leafValues></_>
        <_>
          <internalNodes>
            0 -1 7 9.4869360327720642e-03</internalNodes>
          <leafValues>
            -3.0139017105102539e-01 7.3139661550521851e-01</leafValues></_></weakClassifiers></_></stages>
  <features>
    <_>
      <rects>
        <_>
          7 15 17 15 -1.</_>
        <_>
          7 20 17 5 3.</_></rects>
      <tilted>0</tilted></_>
    <_>
      <rects>
        <_>
          9 23 9 1 -1.</_>
        <_>
          12 23 3 1 3.</_></rects>
      <tilted>0</tilted></_>
    <_>
      <rects>
        <_>
          10 7 9 2 -1.</_>
        <_>
          13 7 3 2 3.</_></rects>
      <tilted>0</tilted></_>
    <_>
      <rects>
        <_>
          11 7 6 2 -1.</_>
        <_>
          14 7 3 2 2.</_></rects>
      <tilted>0</tilted></_>
    <_>
      <rects>
        <_>
          11 7 9 2 -1.</_>
        <_>
          14 7 3 2 3.</_></rects>
      <tilted>0</tilted></_>
    <_>
      <rects>
        <_>
          11 10 8 12 -1.</_>
        <_>
          11 14 8 4 3.</_></rects>
      <tilted>0</tilted></_>
    <_>
      <rects>
        <_>
          11 23 8 1 -1.</_>
        <_>
          15 23 4 1 2.</_></rects>
      <tilted>0</tilted></_>
    <_>
      <rects>
        <_>
          12 1 8 4 -1.</_>
        <_>
          12 3 8 2 2.</_></rects>
      <tilted>0</tilted></_>
    <_>
      <rects>
        <_>
          12 6 7 9 -1.</_>
        <_>
          12 9 7 3 3.</_></rects>
      <tilted>0</tilted></_>
    <_>
      <rects>
        <_>
          12 8 12 1 -1.</_>
        <_>
          16 8 4 1 3.</_></rects>
      <tilted>0</tilted></_>
    <_>
      <rects>
        <_>
          12 10 7 12 -1.</_>
        <_>
          12 14 7 4 3.</_></rects>
      <tilted>0</tilted></_>
    <_>
      <rects>
        <_>
          12 22 4 2 -1.</_>
        <_>
          12 23 4 1 2.</_></rects>
      <tilted>0</tilted></_>
    <_>
      <rects>
        <_>
          12 22 15 1 -1.</_>
        <_>
          17 22 5 1 3.</_></rects>
      <tilted>0</tilted></_>
    <_>
      <rects>
        <_>
          12 23 12 1 -1.</_>
        <_>
          16 23 4 1 3.</_></rects>
      <tilted>0</tilted></_>
    <_>
      <rects>
        <_>
          13 0 4 6 -1.</_>
        <_>
          13 2 4 2 3.</_></rects>
      <tilted>0</tilted></_>
    <_>
      <rects>
        <_>
          13 7 8 2 -1.</_>
        <_>
          17 7 4 2 2.</_></rects>
      <tilted>0</tilted></_>
    <_>
      <rects>
        <_>
          13 8 12 2 -1.</_>
        <_>
          17 8 4 2 3.</_></rects>
      <tilted>0</tilted></_>
    <_>
      <rects>
        <_>
          13 14 4 10 -1.</_>
        <_>
          13 19 4 5 2.</_></rects>
      <tilted>0</tilted></_>
    <_>
      <rects>
        <_>
          13 21 2 4 -1.</_>
        <_>
          13 23 2 2 2.</_></rects>
      <tilted>0</tilted></_>
    <_>
      <rects>
        <_>
          13 22 8 2 -1.</_>
        <_>
          17 22 4 2 2.</_></rects>
      <tilted>0</tilted></_>
    <_>
      <rects>
        <_>
          14 6 4 4 -1.</_>
        <_>
          14 8 4 2 2.</_></rects>
      <tilted>0</tilted></_>
    <_>
      <rects>
        <_>
          14 7 8 1 -1.</_>
        <_>
          18 7 4 1 2.</_></rects>
      <tilted>0</tilted></_>
    <_>
      <rects>
        <_>
          14 8 4 2 -1.</_>
        <_>
          16 8 2 2 2.</_></rects>
      <tilted>0</tilted></_>
    <_>
      <rects>
        <_>
          15 9 1 8 -1.</_>
        <_>
          15 13 1 4 2.</_></rects>
      <tilted>0</tilted></_></features></cascade>
</opencv_storage>
