<?xml version="1.0"?>
<opencv_storage>
<cascade>
  <stageType>BOOST</stageType>
  <featureType>HAAR</featureType>
  <height>20</height>
  <width>20</width>
  <stageParams>
    <boostType>GAB</boostType>
    <minHitRate>9.9500000476837158e-01</minHitRate>
    <maxFalseAlarm>5.0000000000000000e-01</maxFalseAlarm>
    <weightTrimRate>9.4999999999999996e-01</weightTrimRate>
    <maxDepth>1</maxDepth>
    <maxWeakCount>100</maxWeakCount></stageParams>
  <featureParams>
    <maxCatCount>0</maxCatCount>
    <featSize>1</featSize>
    <mode>BASIC</mode></featureParams>
  <stageNum>15</stageNum>
  <stages>
    <!-- stage 0 -->
    <_>
      <maxWeakCount>2</maxWeakCount>
      <stageThreshold>-4.2355784773826599e-01</stageThreshold>
      <weakClassifiers>
        <_>
          <internalNodes>
            0 -1 20 2.2534910589456558e-02</internalNodes>
          <leafValues>
            -9.7118157148361206e-01 7.8464603424072266e-01</leafValues></_>
        <_>
          <internalNodes>
            0 -1 23 2.9006139375269413e-03</internalNodes>
          <leafValues>
            -8.8110697269439697e-01 5.4762369394302368e-01</leafValues></_></weakClassifiers></_>
    <!-- stage 1 -->
    <_>
      <maxWeakCount>4</maxWeakCount>
      <stageThreshold>-7.3744064569473267e-01</stageThreshold>
      <weakClassifiers>
        <_>
          <internalNodes>
            0 -1 32 1.0976785793900490e-02</internalNodes>
          <leafValues>
            -9.3006992340087891e-01 6.7293232679367065e-01</leafValues></_>
        <_>
          <internalNodes>
            0 -1 38 1.5722230076789856e-02</internalNodes>
          <leafValues>
            -5.6770789623260498e-01 8.0547612905502319e-01</leafValues></_>
        <_>
          <internalNodes>
            0 -1 22 -7.9633817076683044e-03</internalNodes>
          <leafValues>
            4.4008740782737732e-01 -9.7274345159530640e-01</leafValues></_>
        <_>
          <internalNodes>
            0 -1 12 1.9844586495310068e-03</internalNodes>
          <leafValues>
            3.2024973630905151e-01 -9.7569787502288818e-01</leafValues></_></weakClassifiers></_>
    <!-- stage 2 -->
    <_>
      <maxWeakCount>1</maxWeakCount>
      <stageThreshold>6.1510789394378662e-01</stageThreshold>
      <weakClassifiers>
        <_>
          <internalNodes>
            0 -1 3 -6.0405675321817398e-03</internalNodes>
          <leafValues>
            -9.8319327831268311e-01 6.1510789394378662e-01</leafValues></_></weakClassifiers></_>
    <!-- stage 3 -->
    <_>
      <maxWeakCount>4</maxWeakCount>
      <stageThreshold>-6.9930046796798706e-01</stageThreshold>
      <weakClassifiers>
        <_>
          <internalNodes>
            0 -1 26 1.4098263345658779e-03</internalNodes>
          <leafValues>
            7.3743289709091187e-01 -9.3855607509613037e-01</leafValues></_>
        <_>
          <internalNodes>
            0 -1 5 1.5016119927167892e-02</internalNodes>
          <leafValues>
            4.5826584100723267e-01 -9.3629270792007446e-01</leafValues></_>
        <_>
          <internalNodes>
            0 -1 25 2.6126682758331299e-02</internalNodes>
          <leafValues>
            -5.7699102163314819e-01 6.6011089086532593e-01</leafValues></_>
        <_>
          <internalNodes>
            0 -1 15 1.1543700238689780e-03</internalNodes>
          <leafValues>
            3.5798078775405884e-01 -9.4360667467117310e-01</leafValues></_></weakClassifiers></_>
    <!-- stage 4 -->
    <_>
      <maxWeakCount>1</maxWeakCount>
      <stageThreshold>6.2098598480224609e-01</stageThreshold>
      <weakClassifiers>
        <_>
          <internalNodes>
            0 -1 30 -4.4718016870319843e-03</internalNodes>
          <leafValues>
            6.2098598480224609e-01 -9.6728014945983887e-01</leafValues></_></weakClassifiers></_>
    <!-- stage 5 -->
    <_>
      <maxWeakCount>4</maxWeakCount>
      <stageThreshold>-3.8886713981628418e-01</stageThreshold>
      <weakClassifiers>
        <_>
          <internalNodes>
            0 -1 4 7.8423149883747101e-02</internalNodes>
          <leafValues>
            6.2736940383911133e-01 -8.5102421045303345e-01</leafValues></_>
        <_>
          <internalNodes>
            0 -1 31 -5.3918221965432167e-03</internalNodes>
          <leafValues>
            5.0455927848815918e-01 -7.3537242412567139e-01</leafValues></_>
        <_>
          <internalNodes>
            0 -1 1 3.2134398818016052e-02</internalNodes>
          <leafValues>
            -4.4445201754570007e-01 8.0029773712158203e-01</leafValues></_>
        <_>
          <internalNodes>
            0 -1 37 1.9705928862094879e-03</internalNodes>
          <leafValues>
            4.0204977989196777e-01 -9.8371601104736328e-01</leafValues></_></weakClassifiers></_>
    <!-- stage 6 -->
    <_>
      <maxWeakCount>4</maxWeakCount>
      <stageThreshold>-4.0160286426544189e-01</stageThreshold>
      <weakClassifiers>
        <_>
          <internalNodes>
            0 -1 28 1.1501298286020756e-04</internalNodes>
          <leafValues>
            -9.8617511987686157e-01 5.8605474233627319e-01</leafValues></_>
        <_>
          <internalNodes>
            0 -1 29 5.2568707615137100e-03</internalNodes>
          <leafValues>
            3.8806858658790588e-01 -9.0711849927902222e-01</leafValues></_>
        <_>
          <internalNodes>
            0 -1 2 4.4948305934667587e-02</internalNodes>
          <leafValues>
            -4.5640057325363159e-01 7.8154605627059937e-01</leafValues></_>
        <_>
          <internalNodes>
            0 -1 13 7.0921033620834351e-03</internalNodes>
          <leafValues>
            -9.5444309711456299e-01 3.7586149573326111e-01</leafValues></_></weakClassifiers></_>
    <!-- stage 7 -->
    <_>
      <maxWeakCount>3</maxWeakCount>
      <stageThreshold>-1.1354855448007584e-01</stageThreshold>
      <weakClassifiers>
        <_>
          <internalNodes>
            0 -1 29 5.5763451382517815e-03</internalNodes>
          <leafValues>
            7.5000000000000000e-01 -8.9473682641983032e-01</leafValues></_>
        <_>
          <internalNodes>
            0 -1 8 -1.0282436385750771e-02</internalNodes>
          <leafValues>
            -9.6875602006912231e-01 3.8532286882400513e-01</leafValues></_>
        <_>
          <internalNodes>
            0 -1 9 3.2733500003814697e-02</internalNodes>
          <leafValues>
            3.9586541056632996e-01 -9.5815271139144897e-01</leafValues></_></weakClassifiers></_>
    <!-- stage 8 -->
    <_>
      <maxWeakCount>4</maxWeakCount>
      <stageThreshold>-7.4900883436203003e-01</stageThreshold>
      <weakClassifiers>
        <_>
          <internalNodes>
            0 -1 49 -1.3813760131597519e-02</internalNodes>
          <leafValues>
            -9.2207789421081543e-01 5.9249329566955566e-01</leafValues></_>
        <_>
          <internalNodes>
            0 -1 50 1.0633540805429220e-03</internalNodes>
          <leafValues>
            4.0605235099792480e-01 -9.7316282987594604e-01</leafValues></_>
        <_>
          <internalNodes>
            0 -1 51 -3.5275807604193687e-03</internalNodes>
          <leafValues>
            5.1577663421630859e-01 -6.4821147918701172e-01</leafValues></_>
        <_>
          <internalNodes>
            0 -1 27 2.5637780781835318e-03</internalNodes>
          <leafValues>
            2.7987217903137207e-01 -9.4416809082031250e-01</leafValues></_></weakClassifiers></_>
    <!-- stage 9 -->
    <_>
      <maxWeakCount>4</maxWeakCount>
      <stageThreshold>-3.6642614006996155e-01</stageThreshold>
      <weakClassifiers>
        <_>
          <internalNodes>
            0 -1 42 2.9723599436692894e-04</internalNodes>
          <leafValues>
            5.8067375421524048e-01 -9.2342340946197510e-01</leafValues></_>
        <_>
          <internalNodes>
            0 -1 14 3.9439284591935575e-04</internalNodes>
          <leafValues>
            -7.1140033006668091e-01 4.2344966530799866e-01</leafValues></_>
        <_>
          <internalNodes>
            0 -1 54 -9.3923928216099739e-03</internalNodes>
          <leafValues>
            6.8254595994949341e-01 -3.9485466480255127e-01</leafValues></_>
        <_>
          <internalNodes>
            0 -1 21 -3.5719235893338919e-04</internalNodes>
          <leafValues>
            -9.7569495439529419e-01 2.8995847702026367e-01</leafValues></_></weakClassifiers></_>
    <!-- stage 10 -->
    <_>
      <maxWeakCount>5</maxWeakCount>
      <stageThreshold>-2.1852539479732513e-01</stageThreshold>
      <weakClassifiers>
        <_>
          <internalNodes>
            0 -1 43 2.9298019944690168e-04</internalNodes>
          <leafValues>
            -7.2924184799194336e-01 6.0764211416244507e-01</leafValues></_>
        <_>
          <internalNodes>
            0 -1 7 -4.4293276965618134e-02</internalNodes>
          <leafValues>
            7.5891053676605225e-01 -3.5899910330772400e-01</leafValues></_>
        <_>
          <internalNodes>
            0 -1 33 -2.3014545440673828e-02</internalNodes>
          <leafValues>
            -9.4490647315979004e-01 3.5608986020088196e-01</leafValues></_>
        <_>
          <internalNodes>
            0 -1 48 2.1356733050197363e-03</internalNodes>
          <leafValues>
            3.3572950959205627e-01 -8.1750726699829102e-01</leafValues></_>
        <_>
          <internalNodes>
            0 -1 17 4.3916832655668259e-03</internalNodes>
          <leafValues>
            1.8733477592468262e-01 -9.4001340866088867e-01</leafValues></_></weakClassifiers></_>
    <!-- stage 11 -->
    <_>
      <maxWeakCount>5</maxWeakCount>
      <stageThreshold>-2.9246070981025696e-01</stageThreshold>
      <weakClassifiers>
        <_>
          <internalNodes>
            0 -1 18 -6.2251149211078882e-04</internalNodes>
          <leafValues>
            -8.6129754781723022e-01 5.7035064697265625e-01</leafValues></_>
        <_>
          <internalNodes>
            0 -1 24 -1.5285267494618893e-02</internalNodes>
          <leafValues>
            7.6243752241134644e-01 -3.4169363975524902e-01</leafValues></_>
        <_>
          <internalNodes>
            0 -1 6 -4.0377478580921888e-04</internalNodes>
          <leafValues>
            4.4048827886581421e-01 -5.9577351808547974e-01</leafValues></_>
        <_>
          <internalNodes>
            0 -1 10 -1.0358683764934540e-02</internalNodes>
          <leafValues>
            -9.8461902141571045e-01 2.5045123696327209e-01</leafValues></_>
        <_>
          <internalNodes>
            0 -1 11 7.1396557614207268e-03</internalNodes>
          <leafValues>
            2.1959094703197479e-01 -9.5486944913864136e-01</leafValues></_></weakClassifiers></_>
    <!-- stage 12 -->
    <_>
      <maxWeakCount>5</maxWeakCount>
      <stageThreshold>-2.9385253787040710e-01</stageThreshold>
      <weakClassifiers>
        <_>
          <internalNodes>
            0 -1 39 5.4313066357281059e-05</internalNodes>
          <leafValues>
            -8.0081301927566528e-01 5.8605074882507324e-01</leafValues></_>
        <_>
          <internalNodes>
            0 -1 53 2.2661522962152958e-03</internalNodes>
          <leafValues>
            -4.9860367178916931e-01 5.5501896142959595e-01</leafValues></_>
        <_>
          <internalNodes>
            0 -1 44 6.5006930381059647e-03</internalNodes>
          <leafValues>
            -4.2782726883888245e-01 5.9502273797988892e-01</leafValues></_>
        <_>
          <internalNodes>
            0 -1 45 1.8669829005375504e-03</internalNodes>
          <leafValues>
            2.2706440091133118e-01 -9.7662013769149780e-01</leafValues></_>
        <_>
          <internalNodes>
            0 -1 35 4.9669516738504171e-04</internalNodes>
          <leafValues>
            -9.6612316370010376e-01 1.8347702920436859e-01</leafValues></_></weakClassifiers></_>
    <!-- stage 13 -->
    <_>
      <maxWeakCount>5</maxWeakCount>
      <stageThreshold>-5.4279810190200806e-01</stageThreshold>
      <weakClassifiers>
        <_>
          <internalNodes>
            0 -1 47 -4.6109090908430517e-04</internalNodes>
          <leafValues>
            -8.4355181455612183e-01 5.8329594135284424e-01</leafValues></_>
        <_>
          <internalNodes>
            0 -1 34 1.1722669005393982e-03</internalNodes>
          <leafValues>
            -5.3861767053604126e-01 5.1507407426834106e-01</leafValues></_>
        <_>
          <internalNodes>
            0 -1 52 3.6374107003211975e-04</internalNodes>
          <leafValues>
            -6.6470891237258911e-01 4.3622243404388428e-01</leafValues></_>
        <_>
          <internalNodes>
            0 -1 40 3.7008972140029073e-04</internalNodes>
          <leafValues>
            2.3976716399192810e-01 -9.3390262126922607e-01</leafValues></_>
        <_>
          <internalNodes>
            0 -1 41 2.3681991733610630e-03</internalNodes>
          <leafValues>
            2.1062137186527252e-01 -9.2334461212158203e-01</leafValues></_></weakClassifiers></_>
    <!-- stage 14 -->
    <_>
      <maxWeakCount>5</maxWeakCount>
      <stageThreshold>-1.0183105468750000e+00</stageThreshold>
      <weakClassifiers>
        <_>
          <internalNodes>
            0 -1 19 2.7467913925647736e-02</internalNodes>
          <leafValues>
            6.0737937688827515e-01 -6.5529012680053711e-01</leafValues></_>
        <_>
          <internalNodes>
            0 -1 46 -3.1097782775759697e-03</internalNodes>
          <leafValues>
            3.7828794121742249e-01 -7.8621286153793335e-01</leafValues></_>
        <_>
          <internalNodes>
            0 -1 36 -6.9077429361641407e-04</internalNodes>
          <leafValues>
            -9.2498707771301270e-01 2.9267492890357971e-01</leafValues></_>
        <_>
          <internalNodes>
            0 -1 0 1.2054644525051117e-02</internalNodes>
          <leafValues>
            -4.3244627118110657e-01 6.8787592649459839e-01</leafValues></_>
        <_>
          <internalNodes>
            0 -1 16 -1.4756750315427780e-03</internalNodes>
          <leafValues>
            4.1991752386093140e-01 -6.9970571994781494e-01</leafValues></_></weakClassifiers></_></stages>
  <features>
    <_>
      <rects>
        <_>
          0 3 2 11 -1.</_>
        <_>
          1 3 1 11 2.</_></rects>
      <tilted>0</tilted></_>
    <_>
      <rects>
        <_>
          0 5 4 9 -1.</_>
        <_>
          2 5 2 9 2.</_></rects>
      <tilted>0</tilted></_>
    <_>
      <rects>
        <_>
          4 0 10 4 -1.</_>
        <_>
          4 2 10 2 2.</_></rects>
      <tilted>0</tilted></_>
    <_>
      <rects>
        <_>
          4 5 10 9 -1.</_>
        <_>
          9 5 5 9 2.</_></rects>
      <tilted>0</tilted></_>
    <_>
      <rects>
        <_>
          4 6 12 11 -1.</_>
        <_>
          8 6 4 11 3.</_></rects>
      <tilted>0</tilted></_>
    <_>
      <rects>
        <_>
          4 11 12 5 -1.</_>
        <_>
          10 11 6 5 2.</_></rects>
      <tilted>0</tilted></_>
    <_>
      <rects>
        <_>
          4 13 2 2 -1.</_>
        <_>
          5 13 1 2 2.</_></rects>
      <tilted>0</tilted></_>
    <_>
      <rects>
        <_>
          4 16 13 4 -1.</_>
        <_>
          4 18 13 2 2.</_></rects>
      <tilted>0</tilted></_>
    <_>
      <rects>
        <_>
          5 4 3 12 -1.</_>
        <_>
          5 10 3 6 2.</_></rects>
      <tilted>0</tilted></_>
    <_>
      <rects>
        <_>
          5 4 7 14 -1.</_>
        <_>
          5 11 7 7 2.</_></rects>
      <tilted>0</tilted></_>
    <_>
      <rects>
        <_>
          5 4 10 12 -1.</_>
        <_>
          5 10 10 6 2.</_></rects>
      <tilted>0</tilted></_>
    <_>
      <rects>
        <_>
          5 5 3 12 -1.</_>
        <_>
          5 11 3 6 2.</_></rects>
      <tilted>0</tilted></_>
    <_>
      <rects>
        <_>
          5 5 12 6 -1.</_>
        <_>
          11 5 6 6 2.</_></rects>
      <tilted>0</tilted></_>
    <_>
      <rects>
        <_>
          5 9 9 5 -1.</_>
        <_>
          8 9 3 5 3.</_></rects>
      <tilted>0</tilted></_>
    <_>
      <rects>
        <_>
          5 14 2 2 -1.</_>
        <_>
          5 15 2 1 2.</_></rects>
      <tilted>0</tilted></_>
    <_>
      <rects>
        <_>
          6 4 6 5 -1.</_>
        <_>
          9 4 3 5 2.</_></rects>
      <tilted>0</tilted></_>
    <_>
      <rects>
        <_>
          6 4 7 2 -1.</_>
        <_>
          6 5 7 1 2.</_></rects>
      <tilted>0</tilted></_>
    <_>
      <rects>
        <_>
          6 5 3 11 -1.</_>
        <_>
          7 5 1 11 3.</_></rects>
      <tilted>0</tilted></_>
    <_>
      <rects>
        <_>
          6 6 3 8 -1.</_>
        <_>
          7 6 1 8 3.</_></rects>
      <tilted>0</tilted></_>
    <_>
      <rects>
        <_>
          6 6 9 11 -1.</_>
        <_>
          9 6 3 11 3.</_></rects>
      <tilted>0</tilted></_>
    <_>
      <rects>
        <_>
          6 6 8 9 -1.</_>
        <_>
          6 9 8 3 3.</_></rects>
      <tilted>0</tilted></_>
    <_>
      <rects>
        <_>
          6 11 9 3 -1.</_>
        <_>
          6 12 9 1 3.</_></rects>
      <tilted>0</tilted></_>
    <_>
      <rects>
        <_>
          6 11 9 4 -1.</_>
        <_>
          6 13 9 2 2.</_></rects>
      <tilted>0</tilted></_>
    <_>
      <rects>
        <_>
          6 13 9 1 -1.</_>
        <_>
          9 13 3 1 3.</_></rects>
      <tilted>0</tilted></_>
    <_>
      <rects>
        <_>
          6 18 10 2 -1.</_>
        <_>
          6 19 10 1 2.</_></rects>
      <tilted>0</tilted></_>
    <_>
      <rects>
        <_>
          7 1 7 6 -1.</_>
        <_>
          7 3 7 2 3.</_></rects>
      <tilted>0</tilted></_>
    <_>
      <rects>
        <_>
          7 5 4 7 -1.</_>
        <_>
          9 5 2 7 2.</_></rects>
      <tilted>0</tilted></_>
    <_>
      <rects>
        <_>
          7 9 4 3 -1.</_>
        <_>
          9 9 2 3 2.</_></rects>
      <tilted>0</tilted></_>
    <_>
      <rects>
        <_>
          7 10 4 3 -1.</_>
        <_>
          9 10 2 3 2.</_></rects>
      <tilted>0</tilted></_>
    <_>
      <rects>
        <_>
          7 10 6 3 -1.</_>
        <_>
          9 10 2 3 3.</_></rects>
      <tilted>0</tilted></_>
    <_>
      <rects>
        <_>
          7 11 10 2 -1.</_>
        <_>
          12 11 5 2 2.</_></rects>
      <tilted>0</tilted></_>
    <_>
      <rects>
        <_>
          8 3 4 4 -1.</_>
        <_>
          8 5 4 2 2.</_></rects>
      <tilted>0</tilted></_>
    <_>
      <rects>
        <_>
          8 5 4 8 -1.</_>
        <_>
          8 9 4 4 2.</_></rects>
      <tilted>0</tilted></_>
    <_>
      <rects>
        <_>
          8 5 7 12 -1.</_>
        <_>
          8 11 7 6 2.</_></rects>
      <tilted>0</tilted></_>
    <_>
      <rects>
        <_>
          8 7 5 3 -1.</_>
        <_>
          8 8 5 1 3.</_></rects>
      <tilted>0</tilted></_>
    <_>
      <rects>
        <_>
          8 9 1 6 -1.</_>
        <_>
          8 11 1 2 3.</_></rects>
      <tilted>0</tilted></_>
    <_>
      <rects>
        <_>
          8 10 4 2 -1.</_>
        <_>
          8 11 4 1 2.</_></rects>
      <tilted>0</tilted></_>
    <_>
      <rects>
        <_>
          8 10 4 3 -1.</_>
        <_>
          8 11 4 1 3.</_></rects>
      <tilted>0</tilted></_>
    <_>
      <rects>
        <_>
          9 1 3 6 -1.</_>
        <_>
          9 3 3 2 3.</_></rects>
      <tilted>0</tilted></_>
    <_>
      <rects>
        <_>
          9 8 3 3 -1.</_>
        <_>
          9 9 3 1 3.</_></rects>
      <tilted>0</tilted></_>
    <_>
      <rects>
        <_>
          9 10 2 4 -1.</_>
        <_>
          9 12 2 2 2.</_></rects>
      <tilted>0</tilted></_>
    <_>
      <rects>
        <_>
          9 10 4 6 -1.</_>
        <_>
          9 10 2 3 2.</_>
        <_>
          11 13 2 3 2.</_></rects>
      <tilted>0</tilted></_>
    <_>
      <rects>
        <_>
          9 11 7 2 -1.</_>
        <_>
          9 12 7 1 2.</_></rects>
      <tilted>0</tilted></_>
    <_>
      <rects>
        <_>
          9 12 3 3 -1.</_>
        <_>
          9 13 3 1 3.</_></rects>
      <tilted>0</tilted></_>
    <_>
      <rects>
        <_>
          10 1 1 6 -1.</_>
        <_>
          10 3 1 2 3.</_></rects>
      <tilted>0</tilted></_>
    <_>
      <rects>
        <_>
          10 4 4 13 -1.</_>
        <_>
          12 4 2 13 2.</_></rects>
      <tilted>0</tilted></_>
    <_>
      <rects>
        <_>
          10 9 8 1 -1.</_>
        <_>
          14 9 4 1 2.</_></rects>
      <tilted>0</tilted></_>
    <_>
      <rects>
        <_>
          11 5 2 5 -1.</_>
        <_>
          12 5 1 5 2.</_></rects>
      <tilted>0</tilted></_>
    <_>
      <rects>
        <_>
          13 4 2 12 -1.</_>
        <_>
          13 10 2 6 2.</_></rects>
      <tilted>0</tilted></_>
    <_>
      <rects>
        <_>
          13 4 3 12 -1.</_>
        <_>
          13 10 3 6 2.</_></rects>
      <tilted>0</tilted></_>
    <_>
      <rects>
        <_>
          13 5 1 12 -1.</_>
        <_>
          13 11 1 6 2.</_></rects>
      <tilted>0</tilted></_>
    <_>
      <rects>
        <_>
          13 14 4 4 -1.</_>
        <_>
          13 14 2 2 2.</_>
        <_>
          15 16 2 2 2.</_></rects>
      <tilted>0</tilted></_>
    <_>
      <rects>
        <_>
          13 14 3 2 -1.</_>
        <_>
          13 15 3 1 2.</_></rects>
      <tilted>0</tilted></_>
    <_>
      <rects>
        <_>
          14 13 1 4 -1.</_>
        <_>
          14 15 1 2 2.</_></rects>
      <tilted>0</tilted></_>
    <_>
      <rects>
        <_>
          18 6 2 8 -1.</_>
        <_>
          19 6 1 8 2.</_></rects>
      <tilted>0</tilted></_></features></cascade>
</opencv_storage>
